<?xml version="1.0"?>
<opencv_storage>
<cascade>
  <stageType>BOOST</stageType>
  <featureType>HAAR</featureType>
  <height>28</height>
  <width>28</width>
  <stageParams>
    <boostType>GAB</boostType>
    <minHitRate>9.9500000476837158e-001</minHitRate>
    <maxFalseAlarm>5.0000000000000000e-001</maxFalseAlarm>
    <weightTrimRate>9.4999999999999996e-001</weightTrimRate>
    <maxDepth>1</maxDepth>
    <maxWeakCount>100</maxWeakCount></stageParams>
  <featureParams>
    <maxCatCount>0</maxCatCount>
    <featSize>1</featSize>
    <mode>BASIC</mode></featureParams>
  <stageNum>7</stageNum>
  <stages>
    <!-- stage 0 -->
    <_>
      <maxWeakCount>2</maxWeakCount>
      <stageThreshold>-1.8347458541393280e-001</stageThreshold>
      <weakClassifiers>
        <_>
          <internalNodes>
            0 -1 4 7.3850885033607483e-002</internalNodes>
          <leafValues>
            -9.1880136728286743e-001 7.2553080320358276e-001</leafValues></_>
        <_>
          <internalNodes>
            0 -1 16 -1.0428477823734283e-001</internalNodes>
          <leafValues>
            7.3532676696777344e-001 -8.7772518396377563e-001</leafValues></_></weakClassifiers></_>
    <!-- stage 1 -->
    <_>
      <maxWeakCount>4</maxWeakCount>
      <stageThreshold>-1.8423573970794678e+000</stageThreshold>
      <weakClassifiers>
        <_>
          <internalNodes>
            0 -1 14 2.7671821415424347e-002</internalNodes>
          <leafValues>
            -8.7964987754821777e-001 5.1012891530990601e-001</leafValues></_>
        <_>
          <internalNodes>
            0 -1 13 -1.5674557536840439e-002</internalNodes>
          <leafValues>
            4.4505974650382996e-001 -8.3683210611343384e-001</leafValues></_>
        <_>
          <internalNodes>
            0 -1 21 -1.1460572568466887e-004</internalNodes>
          <leafValues>
            3.2763624191284180e-001 -8.8302916288375854e-001</leafValues></_>
        <_>
          <internalNodes>
            0 -1 5 3.4735631942749023e-001</internalNodes>
          <leafValues>
            -5.2473807334899902e-001 6.4939862489700317e-001</leafValues></_></weakClassifiers></_>
    <!-- stage 2 -->
    <_>
      <maxWeakCount>5</maxWeakCount>
      <stageThreshold>-6.9036191701889038e-001</stageThreshold>
      <weakClassifiers>
        <_>
          <internalNodes>
            0 -1 7 3.8202914595603943e-001</internalNodes>
          <leafValues>
            -6.2518489360809326e-001 5.9963268041610718e-001</leafValues></_>
        <_>
          <internalNodes>
            0 -1 20 -1.1428447032812983e-004</internalNodes>
          <leafValues>
            3.5979631543159485e-001 -8.4728848934173584e-001</leafValues></_>
        <_>
          <internalNodes>
            0 -1 24 -6.0800916799053084e-006</internalNodes>
          <leafValues>
            -9.8068064451217651e-001 2.6229214668273926e-001</leafValues></_>
        <_>
          <internalNodes>
            0 -1 11 -2.0428642164915800e-003</internalNodes>
          <leafValues>
            -9.7884273529052734e-001 2.2761307656764984e-001</leafValues></_>
        <_>
          <internalNodes>
            0 -1 22 -9.1749490820802748e-005</internalNodes>
          <leafValues>
            2.9220622777938843e-001 -8.3195126056671143e-001</leafValues></_></weakClassifiers></_>
    <!-- stage 3 -->
    <_>
      <maxWeakCount>4</maxWeakCount>
      <stageThreshold>-9.6762913465499878e-001</stageThreshold>
      <weakClassifiers>
        <_>
          <internalNodes>
            0 -1 10 6.8016932345926762e-005</internalNodes>
          <leafValues>
            -6.9405460357666016e-001 4.2146533727645874e-001</leafValues></_>
        <_>
          <internalNodes>
            0 -1 6 2.5270378682762384e-003</internalNodes>
          <leafValues>
            2.9075825214385986e-001 -9.3532639741897583e-001</leafValues></_>
        <_>
          <internalNodes>
            0 -1 25 -5.9558178691077046e-006</internalNodes>
          <leafValues>
            -8.4807384014129639e-001 3.0522018671035767e-001</leafValues></_>
        <_>
          <internalNodes>
            0 -1 25 5.9294161474099383e-006</internalNodes>
          <leafValues>
            3.5653164982795715e-001 -9.9828380346298218e-001</leafValues></_></weakClassifiers></_>
    <!-- stage 4 -->
    <_>
      <maxWeakCount>3</maxWeakCount>
      <stageThreshold>-1.4790147542953491e-001</stageThreshold>
      <weakClassifiers>
        <_>
          <internalNodes>
            0 -1 25 -6.0298630160104949e-006</internalNodes>
          <leafValues>
            -8.6544436216354370e-001 3.7327477335929871e-001</leafValues></_>
        <_>
          <internalNodes>
            0 -1 17 -5.3857154853176326e-005</internalNodes>
          <leafValues>
            4.1779288649559021e-001 -6.8576753139495850e-001</leafValues></_>
        <_>
          <internalNodes>
            0 -1 6 -7.4640125967562199e-004</internalNodes>
          <leafValues>
            -9.8402875661849976e-001 2.9975003004074097e-001</leafValues></_></weakClassifiers></_>
    <!-- stage 5 -->
    <_>
      <maxWeakCount>5</maxWeakCount>
      <stageThreshold>-6.4234280586242676e-001</stageThreshold>
      <weakClassifiers>
        <_>
          <internalNodes>
            0 -1 12 2.6030194014310837e-002</internalNodes>
          <leafValues>
            -5.9079927206039429e-001 5.5949991941452026e-001</leafValues></_>
        <_>
          <internalNodes>
            0 -1 18 -1.1487156734801829e-004</internalNodes>
          <leafValues>
            3.5113725066184998e-001 -8.3308726549148560e-001</leafValues></_>
        <_>
          <internalNodes>
            0 -1 3 4.8153925687074661e-002</internalNodes>
          <leafValues>
            -7.1412664651870728e-001 3.0667838454246521e-001</leafValues></_>
        <_>
          <internalNodes>
            0 -1 2 -5.9005141258239746e-002</internalNodes>
          <leafValues>
            -9.4212603569030762e-001 2.5226300954818726e-001</leafValues></_>
        <_>
          <internalNodes>
            0 -1 8 8.0452084541320801e-002</internalNodes>
          <leafValues>
            2.5081482529640198e-001 -9.6162217855453491e-001</leafValues></_></weakClassifiers></_>
    <!-- stage 6 -->
    <_>
      <maxWeakCount>6</maxWeakCount>
      <stageThreshold>-8.3931213617324829e-001</stageThreshold>
      <weakClassifiers>
        <_>
          <internalNodes>
            0 -1 0 1.5571638869005255e-005</internalNodes>
          <leafValues>
            -8.0575537681579590e-001 2.6608934998512268e-001</leafValues></_>
        <_>
          <internalNodes>
            0 -1 15 -2.3084910935722291e-004</internalNodes>
          <leafValues>
            2.3701831698417664e-001 -8.9803802967071533e-001</leafValues></_>
        <_>
          <internalNodes>
            0 -1 1 2.1151141263544559e-003</internalNodes>
          <leafValues>
            2.5339540839195251e-001 -9.8738276958465576e-001</leafValues></_>
        <_>
          <internalNodes>
            0 -1 23 5.9348781178414356e-006</internalNodes>
          <leafValues>
            2.0503005385398865e-001 -8.4154272079467773e-001</leafValues></_>
        <_>
          <internalNodes>
            0 -1 19 -1.4691188698634505e-004</internalNodes>
          <leafValues>
            2.4083861708641052e-001 -8.0533689260482788e-001</leafValues></_>
        <_>
          <internalNodes>
            0 -1 9 -8.8780790567398071e-002</internalNodes>
          <leafValues>
            -9.5632034540176392e-001 1.6521719098091125e-001</leafValues></_></weakClassifiers></_></stages>
  <features>
    <_>
      <rects>
        <_>
          0 0 18 2 -1.</_>
        <_>
          9 0 9 2 2.</_></rects>
      <tilted>0</tilted></_>
    <_>
      <rects>
        <_>
          0 0 20 2 -1.</_>
        <_>
          10 0 10 2 2.</_></rects>
      <tilted>0</tilted></_>
    <_>
      <rects>
        <_>
          0 0 28 28 -1.</_>
        <_>
          14 0 14 28 2.</_></rects>
      <tilted>0</tilted></_>
    <_>
      <rects>
        <_>
          0 0 21 10 -1.</_>
        <_>
          0 5 21 5 2.</_></rects>
      <tilted>0</tilted></_>
    <_>
      <rects>
        <_>
          0 6 14 17 -1.</_>
        <_>
          7 6 7 17 2.</_></rects>
      <tilted>0</tilted></_>
    <_>
      <rects>
        <_>
          0 6 27 17 -1.</_>
        <_>
          9 6 9 17 3.</_></rects>
      <tilted>0</tilted></_>
    <_>
      <rects>
        <_>
          0 27 27 1 -1.</_>
        <_>
          9 27 9 1 3.</_></rects>
      <tilted>0</tilted></_>
    <_>
      <rects>
        <_>
          1 6 27 18 -1.</_>
        <_>
          10 6 9 18 3.</_></rects>
      <tilted>0</tilted></_>
    <_>
      <rects>
        <_>
          2 0 26 23 -1.</_>
        <_>
          15 0 13 23 2.</_></rects>
      <tilted>0</tilted></_>
    <_>
      <rects>
        <_>
          6 0 22 28 -1.</_>
        <_>
          6 14 22 14 2.</_></rects>
      <tilted>0</tilted></_>
    <_>
      <rects>
        <_>
          7 0 2 6 -1.</_>
        <_>
          8 0 1 6 2.</_></rects>
      <tilted>0</tilted></_>
    <_>
      <rects>
        <_>
          8 0 20 2 -1.</_>
        <_>
          18 0 10 2 2.</_></rects>
      <tilted>0</tilted></_>
    <_>
      <rects>
        <_>
          10 20 16 8 -1.</_>
        <_>
          10 20 8 4 2.</_>
        <_>
          18 24 8 4 2.</_></rects>
      <tilted>0</tilted></_>
    <_>
      <rects>
        <_>
          10 20 10 8 -1.</_>
        <_>
          10 24 10 4 2.</_></rects>
      <tilted>0</tilted></_>
    <_>
      <rects>
        <_>
          11 0 11 10 -1.</_>
        <_>
          11 5 11 5 2.</_></rects>
      <tilted>0</tilted></_>
    <_>
      <rects>
        <_>
          11 22 5 6 -1.</_>
        <_>
          11 25 5 3 2.</_></rects>
      <tilted>0</tilted></_>
    <_>
      <rects>
        <_>
          14 5 14 18 -1.</_>
        <_>
          21 5 7 18 2.</_></rects>
      <tilted>0</tilted></_>
    <_>
      <rects>
        <_>
          21 22 6 4 -1.</_>
        <_>
          21 24 6 2 2.</_></rects>
      <tilted>0</tilted></_>
    <_>
      <rects>
        <_>
          22 12 6 4 -1.</_>
        <_>
          24 12 2 4 3.</_></rects>
      <tilted>0</tilted></_>
    <_>
      <rects>
        <_>
          23 2 4 10 -1.</_>
        <_>
          25 2 2 10 2.</_></rects>
      <tilted>0</tilted></_>
    <_>
      <rects>
        <_>
          23 5 2 8 -1.</_>
        <_>
          24 5 1 8 2.</_></rects>
      <tilted>0</tilted></_>
    <_>
      <rects>
        <_>
          23 8 2 8 -1.</_>
        <_>
          24 8 1 8 2.</_></rects>
      <tilted>0</tilted></_>
    <_>
      <rects>
        <_>
          23 14 2 10 -1.</_>
        <_>
          24 14 1 10 2.</_></rects>
      <tilted>0</tilted></_>
    <_>
      <rects>
        <_>
          24 0 4 8 -1.</_>
        <_>
          24 4 4 4 2.</_></rects>
      <tilted>0</tilted></_>
    <_>
      <rects>
        <_>
          24 0 4 10 -1.</_>
        <_>
          24 5 4 5 2.</_></rects>
      <tilted>0</tilted></_>
    <_>
      <rects>
        <_>
          24 16 4 12 -1.</_>
        <_>
          26 16 2 12 2.</_></rects>
      <tilted>0</tilted></_></features></cascade>
</opencv_storage>
